FANN_FLO_2.1
num_layers=3
learning_rate=0.700000
connection_rate=1.000000
network_type=0
learning_momentum=0.000000
training_algorithm=2
train_error_function=1
train_stop_function=0
cascade_output_change_fraction=0.010000
quickprop_decay=-0.000100
quickprop_mu=1.750000
rprop_increase_factor=1.200000
rprop_decrease_factor=0.500000
rprop_delta_min=0.000000
rprop_delta_max=50.000000
rprop_delta_zero=0.100000
cascade_output_stagnation_epochs=12
cascade_candidate_change_fraction=0.010000
cascade_candidate_stagnation_epochs=12
cascade_max_out_epochs=150
cascade_min_out_epochs=50
cascade_max_cand_epochs=150
cascade_min_cand_epochs=50
cascade_num_candidate_groups=2
bit_fail_limit=3.49999999999999977796e-01
cascade_candidate_limit=1.00000000000000000000e+03
cascade_weight_multiplier=4.00000000000000022204e-01
cascade_activation_functions_count=10
cascade_activation_functions=3 5 7 8 10 11 14 15 16 17 
cascade_activation_steepnesses_count=4
cascade_activation_steepnesses=2.50000000000000000000e-01 5.00000000000000000000e-01 7.50000000000000000000e-01 1.00000000000000000000e+00 
layer_sizes=43 9 2 
scale_included=0
neurons (num_inputs, activation_function, activation_steepness)=(0, 0, 0.00000000000000000000e+00) (0, 0, 0.00000000000000000000e+00) (0, 0, 0.00000000000000000000e+00) (0, 0, 0.00000000000000000000e+00) (0, 0, 0.00000000000000000000e+00) (0, 0, 0.00000000000000000000e+00) (0, 0, 0.00000000000000000000e+00) (0, 0, 0.00000000000000000000e+00) (0, 0, 0.00000000000000000000e+00) (0, 0, 0.00000000000000000000e+00) (0, 0, 0.00000000000000000000e+00) (0, 0, 0.00000000000000000000e+00) (0, 0, 0.00000000000000000000e+00) (0, 0, 0.00000000000000000000e+00) (0, 0, 0.00000000000000000000e+00) (0, 0, 0.00000000000000000000e+00) (0, 0, 0.00000000000000000000e+00) (0, 0, 0.00000000000000000000e+00) (0, 0, 0.00000000000000000000e+00) (0, 0, 0.00000000000000000000e+00) (0, 0, 0.00000000000000000000e+00) (0, 0, 0.00000000000000000000e+00) (0, 0, 0.00000000000000000000e+00) (0, 0, 0.00000000000000000000e+00) (0, 0, 0.00000000000000000000e+00) (0, 0, 0.00000000000000000000e+00) (0, 0, 0.00000000000000000000e+00) (0, 0, 0.00000000000000000000e+00) (0, 0, 0.00000000000000000000e+00) (0, 0, 0.00000000000000000000e+00) (0, 0, 0.00000000000000000000e+00) (0, 0, 0.00000000000000000000e+00) (0, 0, 0.00000000000000000000e+00) (0, 0, 0.00000000000000000000e+00) (0, 0, 0.00000000000000000000e+00) (0, 0, 0.00000000000000000000e+00) (0, 0, 0.00000000000000000000e+00) (0, 0, 0.00000000000000000000e+00) (0, 0, 0.00000000000000000000e+00) (0, 0, 0.00000000000000000000e+00) (0, 0, 0.00000000000000000000e+00) (0, 0, 0.00000000000000000000e+00) (0, 0, 0.00000000000000000000e+00) (43, 4, 5.00000000000000000000e-01) (43, 4, 5.00000000000000000000e-01) (43, 4, 5.00000000000000000000e-01) (43, 4, 5.00000000000000000000e-01) (43, 4, 5.00000000000000000000e-01) (43, 4, 5.00000000000000000000e-01) (43, 4, 5.00000000000000000000e-01) (43, 4, 5.00000000000000000000e-01) (0, 0, 0.00000000000000000000e+00) (9, 4, 5.00000000000000000000e-01) (0, 0, 0.00000000000000000000e+00) 
connections (connected_to_neuron, weight)=(0, -1.61139479228483417650e+00) (1, 5.81355016003603637387e+01) (2, 1.20774152201612287172e+03) (3, 3.32652238752681961298e-01) (4, 6.51786022755231897463e+01) (5, 1.17828410600899951532e+03) (6, 1.50000000000000000000e+03) (7, -1.44720838816673635918e+00) (8, 1.72745755457743484840e+02) (9, 6.21465489364906198411e-01) (10, -4.05943289915553862102e+00) (11, 1.93651006048790996772e+00) (12, 1.50000000000000000000e+03) (13, 8.07637546131378030623e+02) (14, -1.47051710415397995924e+00) (15, 2.15623315246375142351e+01) (16, 7.24856885103069892295e-01) (17, -1.41474860011003622517e+00) (18, -4.30342109931882266238e+00) (19, -1.46772175584312449814e+01) (20, 5.33996258194349479709e+02) (21, 3.17710004543137269906e+00) (22, 2.36030524595371709040e+01) (23, 4.07459360993471075840e-01) (24, -6.74014664465586443853e-01) (25, -8.53674804047194979439e-01) (26, 5.94719011649052191615e+01) (27, 1.32973182034492012349e+01) (28, 2.82066101908644562002e+00) (29, 4.74971883557106799856e+00) (30, 3.13410638126397289582e+00) (31, 6.32099750158642414988e+00) (32, 1.40332664363238635019e+00) (33, 5.03874981256469745006e+00) (34, 3.62276795313109758467e+01) (35, -8.04751286922586572814e-01) (36, 3.59499785701293106399e+00) (37, 3.25082740560665328644e+00) (38, 2.09152476445210799838e+00) (39, 2.45789120141863426383e+00) (40, 3.50713851706680301845e+00) (41, 3.11374612978398701557e+01) (42, 2.46224414238887662210e-01) (0, -2.39670465844827179636e-01) (1, 3.15509575344424142429e+01) (2, -5.81017410846055895490e+02) (3, 2.28305107244636706909e+00) (4, -1.50000000000000000000e+03) (5, 1.50000000000000000000e+03) (6, 1.50000000000000000000e+03) (7, 2.02445473667836139953e+00) (8, -1.69637940801798836610e+00) (9, 3.49492570815451175648e+00) (10, 2.34071214923969117550e+00) (11, 2.14094028106055267457e+00) (12, -4.12217518115945836144e+02) (13, 1.50000000000000000000e+03) (14, 1.65539337202814396122e+00) (15, -1.89642943339908811140e+02) (16, -1.67235678417157140885e-01) (17, -4.78966767322640496474e+00) (18, 5.56178168898542324428e+00) (19, 2.32599059981913462991e+01) (20, 1.49417747058884037870e+03) (21, -6.17209458259653009904e-01) (22, -1.06674090373748828853e+01) (23, -4.04276445536101380895e+00) (24, 2.77499396655453711702e+00) (25, -2.12473786143203247079e+00) (26, -7.13667293195624452551e+00) (27, 3.53957766130960607143e+01) (28, 2.53617815972250582046e-01) (29, 6.07015683771035075011e+00) (30, -2.20597462105413910649e+00) (31, 6.02412019259591313691e-01) (32, 4.70967235330648392733e+00) (33, 4.97919354834598024695e+01) (34, 1.24212204625559685667e+01) (35, 1.11506367537596573491e+00) (36, -5.87956194662374986848e+00) (37, 2.88738016356051563349e-01) (38, -1.12655724344021629379e-01) (39, 3.19061384979511641902e-01) (40, -1.37367805383899754812e-01) (41, -3.88723046376276357705e+01) (42, 3.53948432070878116207e-01) (0, -9.24816612454588238279e-01) (1, 2.44997381669136551352e+01) (2, 8.18498377838737837919e+02) (3, -9.39866698169713798983e-01) (4, 1.50000000000000000000e+03) (5, 1.18022127612324584334e+03) (6, 1.50000000000000000000e+03) (7, -2.24333095845968655269e+00) (8, 1.23404525811147266268e+02) (9, 3.69257060786161073196e+00) (10, -3.04876052088175386601e+00) (11, 6.27181846650480823158e-01) (12, 1.50000000000000000000e+03) (13, 8.07661794284349298323e+02) (14, 2.61499366352904327737e-01) (15, 1.75566536132809822846e+01) (16, 5.44776618934355694179e-01) (17, 1.13339080516026058376e+01) (18, -5.51762904262835096603e+00) (19, -1.00909261692997276327e+00) (20, 5.33873243006668758426e+02) (21, 1.10367900231212323625e+00) (22, 2.52411155274964649209e+01) (23, 2.18516180090754907894e+00) (24, -6.23691739657389643270e+00) (25, 5.21004154840882183208e+00) (26, 2.02328732818744008171e+01) (27, -7.04666334498702724431e+01) (28, -2.07924923047685339395e-01) (29, 5.81958805935580358870e-01) (30, 1.27307946990738840576e+00) (31, 3.74226913851051445903e+00) (32, -1.17370854819414893733e+00) (33, -2.68552447620777776649e+01) (34, 6.69794779943197937655e+01) (35, -9.29270317618036245655e-01) (36, 4.02312847752377233945e+00) (37, 2.00064081302097829251e+00) (38, 2.56598549503089978785e+00) (39, 4.75006695983282423157e+00) (40, 4.97553515304212545800e+00) (41, 8.28970330282088108120e-01) (42, 3.55399008108648273296e-01) (0, 7.03266154600003412511e-01) (1, 1.26415503661264150281e+01) (2, -1.92763355239580562284e+02) (3, 1.30548430908544910167e+00) (4, -6.63417865288911343669e+02) (5, 1.50000000000000000000e+03) (6, 1.50000000000000000000e+03) (7, 7.22565640051905822006e-01) (8, -8.83684786136695166192e+00) (9, 1.30580609681077297601e+00) (10, 1.31642677092512205839e+00) (11, 6.17153696971583265451e+00) (12, -3.80255670476097520805e+02) (13, 1.50000000000000000000e+03) (14, 5.64414400070807564802e-01) (15, -1.77734202264102208346e+02) (16, -2.81315582441420186655e+00) (17, -2.52936306339314036506e+01) (18, 1.05221905170308687616e+02) (19, 1.05069668464193432555e+03) (20, 1.49417747058884037870e+03) (21, -1.08106529176124649405e-01) (22, -1.83792493415902526976e+01) (23, 8.86177044242329237100e-01) (24, 2.27809578564478876217e+01) (25, 6.79490292260051975681e-01) (26, -8.53766407220541509560e+02) (27, 1.62237101283649032268e+01) (28, 3.50068805534050453421e-01) (29, -1.09701495483145738952e+00) (30, -4.37573069814680470913e-01) (31, -2.99001994194575981822e+00) (32, 5.31051955856718205240e+00) (33, 4.55045276137282073137e+00) (34, -3.43070362804624329200e+00) (35, 4.52548452884437346633e-01) (36, -1.93393897526536262532e+00) (37, 2.00006030250442418117e-01) (38, -6.85475365569743755323e-02) (39, 4.53358381496217557882e-02) (40, 1.64919013538819170250e+00) (41, -2.59364157233225931520e+01) (42, 5.48883299577382244294e-01) (0, -9.58984676456424822710e-01) (1, 1.01561534915761857434e+01) (2, 4.89488825031438992141e+01) (3, 3.63452022446737910144e+00) (4, 8.58382203408483235307e+00) (5, 1.03729444981430310690e+03) (6, 1.50000000000000000000e+03) (7, -6.22875573213164557274e-01) (8, 1.19436939403292669226e+02) (9, -3.23061384986229743754e-02) (10, -2.00804604128618180425e+00) (11, -3.47740528187614872380e+00) (12, 4.88975362086937650474e+01) (13, 8.07558670209711408461e+02) (14, 1.42235919073877392638e-01) (15, 1.55303298975045862562e+02) (16, -7.69321251759034985263e-01) (17, -4.74332441040962671241e-01) (18, -1.96968612304221690756e-01) (19, 2.73784679759814908451e+00) (20, 7.41149632465641275303e+02) (21, 1.25820104675649857562e+00) (22, 4.19560770523436143975e+00) (23, 1.87986828337937050826e+00) (24, 1.81256342655644009376e+00) (25, -1.41575675978700021851e+00) (26, 5.38637676622755812161e+00) (27, 5.41534239867491891118e+01) (28, -3.03562685375321550385e-01) (29, 4.53279633457972241928e+00) (30, 2.68393501258001077048e+00) (31, -9.57383980510330245828e-01) (32, 2.21797081168953269525e+00) (33, 2.97513324725079231214e+00) (34, 6.18927828978156995277e+01) (35, -1.01419673929407805346e+00) (36, 2.26397226810836249555e+00) (37, 3.88637401403380122744e+00) (38, 4.22749488246901083954e+00) (39, 4.66716412896371757313e+00) (40, 4.51244333551691489959e+00) (41, -6.25029672479129772000e-01) (42, 3.28943776043871927151e-01) (0, 7.96111854681496478037e-01) (1, 2.70769543441511650883e+01) (2, -7.38391856586824246733e+00) (3, 5.14319416546200058882e-01) (4, -2.35805658239717160995e+02) (5, 1.50000000000000000000e+03) (6, 1.50000000000000000000e+03) (7, 2.31781080654785798245e+00) (8, -8.74465468965401804269e+00) (9, -2.85952284793351552139e-01) (10, 6.76054006117117189945e+00) (11, 5.20758260103711911881e+00) (12, 5.50234637511248436681e+01) (13, 1.50000000000000000000e+03) (14, 1.43655130237050587816e+00) (15, -1.06846566480156255352e+01) (16, -3.83151016107934838661e-01) (17, -9.52860878333772337578e-02) (18, 2.08174560035589415463e+01) (19, 2.23881512439104938039e+02) (20, 1.49417747058884037870e+03) (21, -4.73841200648549953911e-01) (22, -1.40955846691606421217e+01) (23, 1.29839625640965850017e+00) (24, 1.04701072456297605839e+01) (25, 3.99835333237391443717e+00) (26, -1.18295110228517188489e+01) (27, 2.90460772427544959839e+01) (28, 2.25001998269463432401e-01) (29, -1.89180023473838154757e+00) (30, -4.39921778892016224205e-01) (31, 3.52020823064451038320e+00) (32, 4.87077311363949849721e+00) (33, 1.06919754735644900734e+01) (34, -7.58644174342533261779e+00) (35, 1.07130760729088514438e+00) (36, -1.65028251197552968677e+01) (37, -3.53395448195833461469e-01) (38, -1.17126850508292565389e-01) (39, 5.20001978459697311585e-01) (40, 7.26591870151659158239e-01) (41, -7.18592823106404932076e+00) (42, 4.05202234812996164859e-01) (0, 6.01767601221500969544e-01) (1, 1.08894517687185903299e+01) (2, -8.64607230156447599256e+01) (3, 2.55455183646712180590e+00) (4, -1.50000000000000000000e+03) (5, 1.50000000000000000000e+03) (6, 1.50000000000000000000e+03) (7, 6.50269880204921602029e-01) (8, -3.79469402457624056524e+01) (9, 1.55862314265833123983e+00) (10, 1.47224971221187028725e+00) (11, 1.66964899372256851962e+01) (12, -3.80237411487240251518e+02) (13, 1.50000000000000000000e+03) (14, 6.91751494639155861677e-01) (15, -6.69299683433155223611e+01) (16, -2.46306769156614224769e+00) (17, -1.98129138606429648917e+01) (18, 6.36706002458665820676e-01) (19, 3.91145182763148966387e+01) (20, 1.49417747058884037870e+03) (21, -1.11032002587303224583e-01) (22, -1.11883356004114506987e+01) (23, -1.35635219735980583344e-01) (24, 9.54114615136577626231e+00) (25, -1.28057797966970565717e+00) (26, -1.56229958086254807625e+01) (27, 5.51162017479152552824e+01) (28, 3.06251268495914885648e-01) (29, -1.47792717164783771189e+00) (30, -9.54339043801387232335e-01) (31, -3.02965964318353453422e+00) (32, 5.39851016759879431817e+00) (33, 1.84507137234295974793e+01) (34, -8.72443979413478287732e-01) (35, 6.33502564491680186798e-01) (36, -2.30387363911263065575e+00) (37, 5.10277716731879216194e-02) (38, 4.75532595599780210510e-03) (39, -6.88757493588329136863e-05) (40, 1.66329282539807166152e+00) (41, -8.71744728993278172879e+00) (42, 5.98582574530461153373e-01) (0, -1.29093399772489081379e+00) (1, 2.44368450181302065971e+01) (2, 1.77006918376194661846e+01) (3, 7.58036766310468790309e-01) (4, 1.10523307626169184914e+02) (5, 1.34850641471799372084e+03) (6, 1.50000000000000000000e+03) (7, -2.32380160009802327892e+00) (8, 4.77857657633254291341e+01) (9, 7.02370424664185699637e-02) (10, -8.47547054694135759689e+00) (11, 1.32755129742827904238e+00) (12, 1.50000000000000000000e+03) (13, 9.07589781032865971611e+02) (14, -2.04995981135023885855e+00) (15, 1.99454786258576852731e+01) (16, -6.94646808371116919467e-01) (17, -4.29244192495410015198e+00) (18, 1.37319853030068828037e-01) (19, -1.00685292114245719119e+01) (20, 5.17543382064639331475e+02) (21, 4.05487287232890203370e+00) (22, 1.03019194677719436726e+01) (23, -1.51245957460317437260e+00) (24, -2.11212598988370858777e-01) (25, -2.53909142264674148048e-01) (26, 1.09911970979122614267e+02) (27, 3.17220111169681580066e+01) (28, 1.42155811372573159801e+00) (29, 5.68421557160190094038e+00) (30, -1.07229307903683707126e-01) (31, -1.31658137185069756825e+00) (32, 9.90906614771560723121e-01) (33, 4.57107037962723428137e+00) (34, 7.36307300806409159577e+01) (35, -4.10174544292400466983e-01) (36, 4.96816444183775818288e+00) (37, 2.53516734745861294087e+00) (38, 2.35033883483759531430e+00) (39, 2.93679959464708639771e+00) (40, -1.69248260693926777520e+00) (41, 4.50371155879091489282e+01) (42, 2.80336417166957396763e-01) (43, -5.09025311633664045985e+00) (44, 1.35362285862982489881e+00) (45, -2.21600186597185633275e+00) (46, 1.02960444352378766020e+00) (47, -1.70184280964761889265e+01) (48, 3.22667932504558185869e+00) (49, 1.00282078648505956764e+00) (50, -3.71806395116287591307e+00) (51, 8.47952431296683295514e-01) 
