FANN_FLO_2.1
num_layers=3
learning_rate=0.700000
connection_rate=1.000000
network_type=0
learning_momentum=0.000000
training_algorithm=2
train_error_function=1
train_stop_function=0
cascade_output_change_fraction=0.010000
quickprop_decay=-0.000100
quickprop_mu=1.750000
rprop_increase_factor=1.200000
rprop_decrease_factor=0.500000
rprop_delta_min=0.000000
rprop_delta_max=50.000000
rprop_delta_zero=0.100000
cascade_output_stagnation_epochs=12
cascade_candidate_change_fraction=0.010000
cascade_candidate_stagnation_epochs=12
cascade_max_out_epochs=150
cascade_min_out_epochs=50
cascade_max_cand_epochs=150
cascade_min_cand_epochs=50
cascade_num_candidate_groups=2
bit_fail_limit=3.49999999999999977796e-01
cascade_candidate_limit=1.00000000000000000000e+03
cascade_weight_multiplier=4.00000000000000022204e-01
cascade_activation_functions_count=10
cascade_activation_functions=3 5 7 8 10 11 14 15 16 17 
cascade_activation_steepnesses_count=4
cascade_activation_steepnesses=2.50000000000000000000e-01 5.00000000000000000000e-01 7.50000000000000000000e-01 1.00000000000000000000e+00 
layer_sizes=43 9 2 
scale_included=0
neurons (num_inputs, activation_function, activation_steepness)=(0, 0, 0.00000000000000000000e+00) (0, 0, 0.00000000000000000000e+00) (0, 0, 0.00000000000000000000e+00) (0, 0, 0.00000000000000000000e+00) (0, 0, 0.00000000000000000000e+00) (0, 0, 0.00000000000000000000e+00) (0, 0, 0.00000000000000000000e+00) (0, 0, 0.00000000000000000000e+00) (0, 0, 0.00000000000000000000e+00) (0, 0, 0.00000000000000000000e+00) (0, 0, 0.00000000000000000000e+00) (0, 0, 0.00000000000000000000e+00) (0, 0, 0.00000000000000000000e+00) (0, 0, 0.00000000000000000000e+00) (0, 0, 0.00000000000000000000e+00) (0, 0, 0.00000000000000000000e+00) (0, 0, 0.00000000000000000000e+00) (0, 0, 0.00000000000000000000e+00) (0, 0, 0.00000000000000000000e+00) (0, 0, 0.00000000000000000000e+00) (0, 0, 0.00000000000000000000e+00) (0, 0, 0.00000000000000000000e+00) (0, 0, 0.00000000000000000000e+00) (0, 0, 0.00000000000000000000e+00) (0, 0, 0.00000000000000000000e+00) (0, 0, 0.00000000000000000000e+00) (0, 0, 0.00000000000000000000e+00) (0, 0, 0.00000000000000000000e+00) (0, 0, 0.00000000000000000000e+00) (0, 0, 0.00000000000000000000e+00) (0, 0, 0.00000000000000000000e+00) (0, 0, 0.00000000000000000000e+00) (0, 0, 0.00000000000000000000e+00) (0, 0, 0.00000000000000000000e+00) (0, 0, 0.00000000000000000000e+00) (0, 0, 0.00000000000000000000e+00) (0, 0, 0.00000000000000000000e+00) (0, 0, 0.00000000000000000000e+00) (0, 0, 0.00000000000000000000e+00) (0, 0, 0.00000000000000000000e+00) (0, 0, 0.00000000000000000000e+00) (0, 0, 0.00000000000000000000e+00) (0, 0, 0.00000000000000000000e+00) (43, 4, 5.00000000000000000000e-01) (43, 4, 5.00000000000000000000e-01) (43, 4, 5.00000000000000000000e-01) (43, 4, 5.00000000000000000000e-01) (43, 4, 5.00000000000000000000e-01) (43, 4, 5.00000000000000000000e-01) (43, 4, 5.00000000000000000000e-01) (43, 4, 5.00000000000000000000e-01) (0, 0, 0.00000000000000000000e+00) (9, 4, 5.00000000000000000000e-01) (0, 0, 0.00000000000000000000e+00) 
connections (connected_to_neuron, weight)=(0, -4.12115833861262046867e+02) (1, -1.40051914557137973105e+01) (2, -2.31697964373287845774e+00) (3, 1.69955110891080329871e+00) (4, -1.70470365553813985038e+00) (5, 4.27931130708249952477e+02) (6, 5.45198067456169788159e+00) (7, 2.82606139159503566560e+00) (8, 3.20211629084880744500e+00) (9, 1.20132947717281890476e+00) (10, -1.27179088943726065208e-01) (11, 2.15936539358878398787e+00) (12, 1.42981113439929927722e+01) (13, -1.88174644326932649641e+00) (14, 5.43642573196408385172e+00) (15, -1.58573674014510057617e+01) (16, 2.33191538156052258213e-01) (17, -7.69230671666016403883e-04) (18, -3.06815470795295086592e-01) (19, 5.35828545525421340301e+00) (20, 3.81590790130844714767e+00) (21, -2.70976093884403379519e+00) (22, -6.28652368309521492051e+00) (23, -9.19272465355438939127e+00) (24, -2.67946339662432375661e+00) (25, 2.12079788227454280047e+00) (26, -1.19179508546626555798e+00) (27, -7.36319177589352413804e+00) (28, -3.88711325546426678113e-01) (29, 1.00645721013463393945e+01) (30, -2.90550898171568805495e+00) (31, 5.49869992756242487175e-01) (32, -2.38000600022000208256e+00) (33, 3.48690859434381206228e+00) (34, 1.89245923835757068332e+00) (35, 6.52709317620207318811e+00) (36, 8.76202860826591667376e+00) (37, 1.16059448990040259275e+00) (38, -2.05005912464184136823e+00) (39, -4.07301124329444430572e+00) (40, -1.22575483410012475716e+00) (41, 2.52439630774526904133e+01) (42, 1.84607592375441376120e+00) (0, -3.91917110799132561993e+00) (1, 1.50000000000000000000e+03) (2, 5.11528458989393475242e-01) (3, -2.06635147395862839304e+00) (4, -4.98876723058285609369e+00) (5, 1.89110488473277058574e+01) (6, 4.19101276455217242045e+00) (7, 6.23611180728310809940e+00) (8, -1.49484143418821986415e+03) (9, -1.30331837505672942790e+00) (10, 3.06981385873638101813e+00) (11, -2.16676235621351453986e+00) (12, 6.19333840108585143014e+00) (13, -2.42097664705037418642e+00) (14, 2.31701136854940958898e+00) (15, -1.46866364000360545106e+03) (16, 2.60870178250913076212e+00) (17, 7.83226640573601873285e+00) (18, 5.88274029234481865558e+00) (19, 1.53584639637085351715e+00) (20, 6.09098960727676708160e+00) (21, -7.38893526746659823345e+00) (22, 1.49999987558397538123e+03) (23, 1.13826669250581469228e+00) (24, -5.44066146632161351526e-01) (25, -1.18205022388371139286e+00) (26, 1.97565639469097575898e+00) (27, 1.04951432540281872074e-01) (28, -3.37665395578637062002e+00) (29, -6.72561869655156829850e+00) (30, -1.48113565051980344833e+00) (31, -2.24392334028899798071e+00) (32, 3.58563968389266118919e+00) (33, 1.38395633109987215015e+00) (34, 5.25919082668254822543e-01) (35, 9.04153736166678356767e+00) (36, 2.08426648618593834961e-01) (37, -2.77046855477163811443e+00) (38, -1.02887859842981832514e+00) (39, 1.19305012769937701655e+00) (40, 5.21189920399994299771e+00) (41, 3.19307507993823902481e+00) (42, -1.75706550920256332482e+00) (0, 5.19678073837678084601e+02) (1, -4.10966614168218242753e+01) (2, -4.88739483116317832700e-02) (3, 2.90345330331217121866e+00) (4, 3.81986274811497708015e+01) (5, 1.02071419926103965281e+03) (6, -2.65342121486801429953e+00) (7, 4.94559057916893252127e+00) (8, -2.01564043251385938138e-01) (9, 2.68846851695753796818e+00) (10, -5.66250836726764461559e+00) (11, -2.21608533726907763750e+00) (12, 1.50000000000000000000e+03) (13, -3.41538333022688291862e+01) (14, -2.68422456739462689246e-01) (15, -3.17687218342432320384e+00) (16, 3.52479018060925231026e+00) (17, -2.74558791054814621546e-01) (18, -2.26698350807832960108e-01) (19, -9.96032799266452939513e-01) (20, 1.26671397826078879767e+00) (21, 1.76927603847905873247e-01) (22, -3.75399163441457794921e-01) (23, 3.87566973490391664114e+00) (24, 8.32099063039029696043e-01) (25, -1.42041814449489023353e+00) (26, 2.08885057832508591602e+00) (27, -4.06129767751358272676e+00) (28, 4.19888981717350695533e+00) (29, 1.79070106842996179530e-02) (30, 6.52717302137253319039e-01) (31, -4.64014164945425244824e-01) (32, 2.98619205781653462850e+00) (33, 6.08729122796943911133e-01) (34, 3.34052573875038172346e+00) (35, 4.55805541859278928740e+00) (36, 2.73198158139607416572e+00) (37, -1.96222460279520172222e+00) (38, 2.18534612650891579833e+00) (39, -1.92408631009920849664e+00) (40, -1.81059617335565037344e+00) (41, 9.62656877346583339516e-01) (42, -4.80419158705020077349e+00) (0, 1.50000000000000000000e+03) (1, -4.73169358378356452732e+00) (2, -3.55254888217744246859e+00) (3, 1.35792553329328491429e+00) (4, -3.07743186451043371221e-01) (5, 1.50000000000000000000e+03) (6, 6.67011676984472412499e+00) (7, 7.08310467598563509029e+00) (8, 1.14295170781567350105e+01) (9, 1.54195400910783386728e+00) (10, -3.75123647964352757711e+00) (11, 1.18563130278743239510e-01) (12, -1.43890953932923859604e+00) (13, 3.31543081670121031479e-01) (14, -1.69627296243491976213e+00) (15, -5.82516813876172045994e-01) (16, -6.33725618873776541662e-01) (17, 1.01806114039608019972e+00) (18, -3.59035637028457488285e+00) (19, -2.21432308968000757243e-01) (20, 3.84510755822225491762e-01) (21, -6.78668084409257943435e+00) (22, 1.75323242220188602047e+00) (23, -2.15729577081727752486e+00) (24, -3.26402359145792253514e+00) (25, 2.17417653694364387817e+00) (26, 3.91483236081455632238e-01) (27, 5.54729149432019452703e-01) (28, 2.49740926840520538477e+00) (29, -1.91861975887421909448e+00) (30, 4.59471445515313003938e+00) (31, 8.06817275629522989711e-01) (32, 3.24969755283802363977e+00) (33, 3.81816856473820198659e+00) (34, -2.15092456059801184765e+00) (35, -1.21566075016805612563e+01) (36, -1.00983829019651349945e+00) (37, 2.97256453026660238947e+00) (38, -4.20906829596297260565e+00) (39, -1.24135731180963237996e+00) (40, 7.82179593219754720756e-01) (41, -4.02538637093010809309e+00) (42, -7.48460492202332461353e-01) (0, -1.00427806325153667899e+02) (1, 6.47114128650231434925e-01) (2, 1.53945006513291069439e+01) (3, 2.77378860400069227055e+00) (4, -1.01644563287849853950e+00) (5, 4.30478023416294945491e+02) (6, 1.35402453680577234962e+01) (7, 2.08237888357221407887e+01) (8, 2.62369170799084461265e+00) (9, -3.73003404887716494276e-01) (10, -5.77022436702543523035e-03) (11, -1.46539289557644325512e+00) (12, 3.41830091244397863193e+02) (13, -7.22170850665345032127e-01) (14, 1.69395388084975606624e+00) (15, -3.34199576444140111775e+00) (16, 8.40775951388225273320e+00) (17, 1.18019762478301371011e+00) (18, -2.34678343665922994887e+00) (19, -1.55394259831301329022e+00) (20, 1.88959236378801320733e+00) (21, -4.05868564940263532037e+00) (22, 7.77472261001058129182e+00) (23, 5.87237289267488082878e-01) (24, 3.70426245539932263995e+00) (25, -6.12258969778575967702e-01) (26, 4.37785266780423576449e+00) (27, 7.92618557243883192776e-01) (28, 2.88200258190551110715e+01) (29, -3.49453281584912067714e+00) (30, -6.43965605956965436718e+00) (31, 1.78284887848488771134e+00) (32, -2.97645288211872571793e+00) (33, -2.51077152051912078079e+00) (34, -4.28549085996540846111e-01) (35, -4.34355163987279357940e+00) (36, 8.66824009349505208988e-01) (37, -3.03874692972951943037e-01) (38, -3.00187216589496097541e+00) (39, 1.68085690492728678791e+00) (40, -6.63917643971843718376e-01) (41, -5.51795596341207517099e+00) (42, -8.82329602355536146696e-01) (0, -5.01902737383523913195e+02) (1, -1.51414023246885864893e+00) (2, 1.31870910594700347929e+01) (3, -9.64526723411349151682e-01) (4, 7.14654336927492828124e+00) (5, 4.24262459336764777618e+02) (6, -3.07680614605011992779e+00) (7, 2.08482240324164180834e+01) (8, -5.90478042056945096050e+00) (9, -5.93126292555775314064e-01) (10, 1.64305697942150841229e+00) (11, -2.25906441337974150940e+00) (12, -3.65194763305462046787e+01) (13, 1.09434235102125043682e+00) (14, -4.84265179733537731721e+00) (15, 5.91385097915701485327e-01) (16, -4.69651838438113511387e+00) (17, -5.66368209090857632759e+00) (18, -2.45683364443207175043e+00) (19, 4.09889724600353777539e-01) (20, -1.31334377377366667838e-01) (21, -3.45048088402024291099e+01) (22, -4.05537033906817501183e-01) (23, 6.89089730436269864988e-01) (24, 9.47467261954506478894e-01) (25, 1.62096619893763604914e+00) (26, -1.11605785572108846537e+01) (27, -6.78521048066668619470e+00) (28, 1.85806766247633814437e+00) (29, 3.89356891503333546467e+00) (30, 7.18130069169959139863e-01) (31, -2.67557507580438258543e+00) (32, 5.11110133147401723974e-01) (33, -9.29911337803083631881e-02) (34, 2.95381196933998735332e+00) (35, -9.47109758395219181182e+00) (36, -3.73802904860989393399e+00) (37, 5.72331107462933696972e-01) (38, 1.27352490569592013969e+00) (39, -4.53201826257894779815e+00) (40, -2.32499844881981143629e+00) (41, -5.32056592768524705406e+00) (42, 3.59571948840858135465e-01) (0, 1.50000000000000000000e+03) (1, -1.92729558596285377448e+00) (2, 1.03863840548334120939e+01) (3, 1.13788471920496103706e+01) (4, -1.05667026480980252856e+00) (5, 1.50000000000000000000e+03) (6, -1.49797897894361997650e+00) (7, 5.11903681982608738110e+00) (8, -3.79890027466682822510e-01) (9, 4.08275866615090343714e+00) (10, -7.46345781310629963201e+00) (11, 4.95062172636174313567e+00) (12, 1.49999322812237460312e+03) (13, 2.15862573227133952569e-02) (14, 5.61336233411181884101e-01) (15, -8.98597986122731207104e+00) (16, 3.54812002812758153780e+00) (17, -1.46881659576881578033e+01) (18, 8.25181423954767723217e+00) (19, -1.46573338841463510107e+03) (20, 4.53586118294541963680e-03) (21, -1.25992257580553346230e+00) (22, 3.37710172790947238397e+00) (23, 2.53684510867049017868e-01) (24, -1.64786552610825154375e+00) (25, 5.25481134368935975942e+00) (26, -1.50000000000000000000e+03) (27, 1.61658126593113883607e-02) (28, 1.22323623136107006992e+00) (29, -4.17196476170122831917e+00) (30, -2.47766775975820285893e+00) (31, 4.87240224842498570457e-01) (32, -1.54016995958260616284e+00) (33, 1.50000000000000000000e+03) (34, -5.90646150900272814965e+00) (35, -5.82037600446705116752e+00) (36, 1.16630249495568480422e-01) (37, -2.82507175537604116045e+00) (38, 5.53745449214309570785e-01) (39, 2.67386712654704150616e-01) (40, 2.21863871212780228159e-01) (41, 2.98258773056362148923e-02) (42, 4.72315948876857072403e-01) (0, -4.46175286816646178067e+02) (1, -5.86744978494843660854e+00) (2, 1.68802207712438989695e+00) (3, -1.33742856868971049522e+01) (4, 8.64596596367752212586e+00) (5, 4.80672543888927123135e+02) (6, 7.77342236191423641145e+00) (7, 4.92540102271174689008e+01) (8, -3.43557199353730480240e+00) (9, 7.89393554251020823642e+00) (10, 1.40909973224184437157e+00) (11, 2.85525021724134520085e-01) (12, -2.86520975352181928031e+01) (13, -1.06401511614068344791e+00) (14, 1.32582225384887113506e+01) (15, 1.98011443322723384997e-01) (16, -4.79909430890856825158e+00) (17, 2.11269462553448938991e+00) (18, 1.11269427753332417197e+00) (19, 7.35854150007169138803e-01) (20, -2.62549464004644317328e+00) (21, -9.41284107363666677770e+00) (22, 3.75404867229853389521e-01) (23, 9.17108545485715853651e-01) (24, -3.31740828250984431946e+00) (25, -9.71083053148282893119e+00) (26, 2.32919710347243169579e+00) (27, 1.16551225374390488021e+00) (28, -2.46590126743411142130e+00) (29, 1.70510062919415927851e+00) (30, 1.76542893616087215314e+00) (31, -4.26662575409861910547e-01) (32, -4.53918210421297363411e+00) (33, -7.68372628184230332948e+00) (34, -2.44880195270644779315e-01) (35, 5.39176695075635414867e+00) (36, 1.80665666558231152727e+00) (37, 9.19604478382247680912e-01) (38, 2.83178924617108540573e+00) (39, 3.95877099779555541303e+00) (40, -7.96681280504076605453e-01) (41, 1.02737627576444534583e+01) (42, 6.10992842251893875094e-01) (43, -1.27236001571539159016e+00) (44, -1.99094239495423286357e+00) (45, -1.55862089323110519778e+00) (46, -1.88400115947144408679e+00) (47, -1.77647792149818717355e+00) (48, -2.39081911525087598136e+00) (49, -1.66805879914806221009e+00) (50, -2.83995482670782539714e+00) (51, 5.92865152267009509757e+00) 
