FANN_FLO_2.1
num_layers=7
learning_rate=0.700000
connection_rate=1.000000
network_type=0
learning_momentum=0.000000
training_algorithm=2
train_error_function=1
train_stop_function=0
cascade_output_change_fraction=0.010000
quickprop_decay=-0.000100
quickprop_mu=1.750000
rprop_increase_factor=1.200000
rprop_decrease_factor=0.500000
rprop_delta_min=0.000000
rprop_delta_max=50.000000
rprop_delta_zero=0.100000
cascade_output_stagnation_epochs=12
cascade_candidate_change_fraction=0.010000
cascade_candidate_stagnation_epochs=12
cascade_max_out_epochs=150
cascade_min_out_epochs=50
cascade_max_cand_epochs=150
cascade_min_cand_epochs=50
cascade_num_candidate_groups=2
bit_fail_limit=3.49999999999999977796e-01
cascade_candidate_limit=1.00000000000000000000e+03
cascade_weight_multiplier=4.00000000000000022204e-01
cascade_activation_functions_count=10
cascade_activation_functions=3 5 7 8 10 11 14 15 16 17 
cascade_activation_steepnesses_count=4
cascade_activation_steepnesses=2.50000000000000000000e-01 5.00000000000000000000e-01 7.50000000000000000000e-01 1.00000000000000000000e+00 
layer_sizes=43 3 9 5 4 5 2 
scale_included=0
neurons (num_inputs, activation_function, activation_steepness)=(0, 0, 0.00000000000000000000e+00) (0, 0, 0.00000000000000000000e+00) (0, 0, 0.00000000000000000000e+00) (0, 0, 0.00000000000000000000e+00) (0, 0, 0.00000000000000000000e+00) (0, 0, 0.00000000000000000000e+00) (0, 0, 0.00000000000000000000e+00) (0, 0, 0.00000000000000000000e+00) (0, 0, 0.00000000000000000000e+00) (0, 0, 0.00000000000000000000e+00) (0, 0, 0.00000000000000000000e+00) (0, 0, 0.00000000000000000000e+00) (0, 0, 0.00000000000000000000e+00) (0, 0, 0.00000000000000000000e+00) (0, 0, 0.00000000000000000000e+00) (0, 0, 0.00000000000000000000e+00) (0, 0, 0.00000000000000000000e+00) (0, 0, 0.00000000000000000000e+00) (0, 0, 0.00000000000000000000e+00) (0, 0, 0.00000000000000000000e+00) (0, 0, 0.00000000000000000000e+00) (0, 0, 0.00000000000000000000e+00) (0, 0, 0.00000000000000000000e+00) (0, 0, 0.00000000000000000000e+00) (0, 0, 0.00000000000000000000e+00) (0, 0, 0.00000000000000000000e+00) (0, 0, 0.00000000000000000000e+00) (0, 0, 0.00000000000000000000e+00) (0, 0, 0.00000000000000000000e+00) (0, 0, 0.00000000000000000000e+00) (0, 0, 0.00000000000000000000e+00) (0, 0, 0.00000000000000000000e+00) (0, 0, 0.00000000000000000000e+00) (0, 0, 0.00000000000000000000e+00) (0, 0, 0.00000000000000000000e+00) (0, 0, 0.00000000000000000000e+00) (0, 0, 0.00000000000000000000e+00) (0, 0, 0.00000000000000000000e+00) (0, 0, 0.00000000000000000000e+00) (0, 0, 0.00000000000000000000e+00) (0, 0, 0.00000000000000000000e+00) (0, 0, 0.00000000000000000000e+00) (0, 0, 0.00000000000000000000e+00) (43, 4, 5.00000000000000000000e-01) (43, 4, 5.00000000000000000000e-01) (0, 0, 0.00000000000000000000e+00) (3, 4, 5.00000000000000000000e-01) (3, 4, 5.00000000000000000000e-01) (3, 4, 5.00000000000000000000e-01) (3, 4, 5.00000000000000000000e-01) (3, 4, 5.00000000000000000000e-01) (3, 4, 5.00000000000000000000e-01) (3, 4, 5.00000000000000000000e-01) (3, 4, 5.00000000000000000000e-01) (0, 0, 0.00000000000000000000e+00) (9, 4, 5.00000000000000000000e-01) (9, 4, 5.00000000000000000000e-01) (9, 4, 5.00000000000000000000e-01) (9, 4, 5.00000000000000000000e-01) (0, 0, 0.00000000000000000000e+00) (5, 4, 5.00000000000000000000e-01) (5, 4, 5.00000000000000000000e-01) (5, 4, 5.00000000000000000000e-01) (0, 0, 0.00000000000000000000e+00) (4, 4, 5.00000000000000000000e-01) (4, 4, 5.00000000000000000000e-01) (4, 4, 5.00000000000000000000e-01) (4, 4, 5.00000000000000000000e-01) (0, 0, 0.00000000000000000000e+00) (5, 4, 5.00000000000000000000e-01) (0, 0, 0.00000000000000000000e+00) 
connections (connected_to_neuron, weight)=(0, 1.49262252393641210801e+03) (1, -1.49999967995511360641e+03) (2, 1.50000000000000000000e+03) (3, 1.47321430069788652872e+03) (4, 1.50000000000000000000e+03) (5, 1.03770904758756887531e+03) (6, -1.50000000000000000000e+03) (7, 9.69097827323366459495e+02) (8, -1.48197421259230532087e+03) (9, 1.42736430219077124093e+03) (10, 1.21214546302118355925e+03) (11, -8.66544212945461822528e+02) (12, -1.49999993857828462751e+03) (13, 1.49082631125884722678e+03) (14, -1.35976659305618909457e+03) (15, 9.72486585708713164422e+02) (16, -1.06554862673399929918e+03) (17, -4.64503795829412240437e+01) (18, -1.49974409356193405074e+03) (19, 2.46628104658434523344e+02) (20, -1.47760511377075113160e+03) (21, -1.31275328762528488369e+03) (22, -1.24183491644177388480e+03) (23, 1.54306821534003802299e+02) (24, 1.49999986799999192044e+03) (25, 9.57195205106952244023e+02) (26, 1.38039873676621732557e+03) (27, 1.50000000000000000000e+03) (28, -8.56565776022957606983e+02) (29, 2.95158974670341308411e+02) (30, 1.50000000000000000000e+03) (31, -1.49849384449848071199e+03) (32, -1.50000000000000000000e+03) (33, -1.48512469181708729593e+03) (34, -1.49739971410062457835e+03) (35, 5.98621372044876807195e+02) (36, -1.13315917003269419183e+03) (37, -1.24145854779171060045e+02) (38, 1.35117079459066667368e+03) (39, 1.50000000000000000000e+03) (40, 1.50000000000000000000e+03) (41, -5.28124450275486765349e+02) (42, -1.37063317106092858921e+03) (0, 1.49191790513578803257e+03) (1, -1.49996003120607906567e+03) (2, 1.47407999588012671666e+03) (3, 1.49992779516819678065e+03) (4, 1.50000000000000000000e+03) (5, 4.19430781244396484908e+02) (6, -1.50000000000000000000e+03) (7, 7.45482249092819643010e+02) (8, -1.44713336932399124635e+03) (9, 1.50000000000000000000e+03) (10, 1.50000000000000000000e+03) (11, 9.48907114791298795353e+02) (12, -1.49995665624603566357e+03) (13, 1.49999987759997952708e+03) (14, 9.95077326272066131629e-01) (15, 1.44926352006747038104e+03) (16, 7.51203956862913742043e+02) (17, 5.27283108041131072241e+02) (18, -1.06061976829491368335e+03) (19, -4.29472579103717691851e+02) (20, -1.49579100381013427068e+03) (21, -8.57358613347656046244e+02) (22, -1.48179773456621592231e+03) (23, 1.50000000000000000000e+03) (24, 1.49999987999999530075e+03) (25, 7.04455382866885770454e+02) (26, 1.18249624852717715839e+03) (27, 1.50000000000000000000e+03) (28, -1.44553925767840883054e+03) (29, 1.41934807438552866188e+03) (30, 1.48103721504958434707e+03) (31, -1.48113810760052251680e+03) (32, -1.50000000000000000000e+03) (33, -1.01146567274163260208e+02) (34, -1.49993885258302907459e+03) (35, 5.38663812091177831576e+01) (36, -1.08128155847355515107e+03) (37, -5.91187624729437743554e+02) (38, 7.25645734660982270725e+02) (39, 7.54104112776724377909e+02) (40, 1.50000000000000000000e+03) (41, -7.54664446729307883288e+02) (42, -1.31331992191558651939e+03) (43, 1.50000000000000000000e+03) (44, 1.50000000000000000000e+03) (45, 1.74870180256164005073e+01) (43, 1.50000000000000000000e+03) (44, 1.50000000000000000000e+03) (45, 1.38882529662428435557e+01) (43, 1.50000000000000000000e+03) (44, 1.50000000000000000000e+03) (45, -1.30295737576442604677e+02) (43, 1.50000000000000000000e+03) (44, 1.50000000000000000000e+03) (45, -1.51637317901837462841e+02) (43, -1.50000000000000000000e+03) (44, -1.50000000000000000000e+03) (45, 9.85712618790541341696e+02) (43, 1.50000000000000000000e+03) (44, 1.50000000000000000000e+03) (45, 1.37151093751974055834e+01) (43, 1.50000000000000000000e+03) (44, 1.50000000000000000000e+03) (45, -2.65912179320145753536e+02) (43, 1.50000000000000000000e+03) (44, 1.50000000000000000000e+03) (45, 1.38547593798441699420e+01) (46, -1.49576563076614377223e+02) (47, -4.33106885126403255981e+02) (48, -1.50000000000000000000e+03) (49, -1.50000000000000000000e+03) (50, 1.50000000000000000000e+03) (51, -4.33106885126403255981e+02) (52, -1.50000000000000000000e+03) (53, -4.33106885126403255981e+02) (54, -3.04163621824665408866e+00) (46, -1.43813707370935560448e+02) (47, -4.34302833637576782166e+02) (48, -1.50000000000000000000e+03) (49, -1.50000000000000000000e+03) (50, 1.50000000000000000000e+03) (51, -4.34302833637576782166e+02) (52, -1.50000000000000000000e+03) (53, -4.34302833637576782166e+02) (54, -5.22212146852831526900e+00) (46, -1.72551089235591007309e+02) (47, -4.40778986421246884220e+02) (48, -1.50000000000000000000e+03) (49, -1.50000000000000000000e+03) (50, 1.50000000000000000000e+03) (51, -4.40778986421246884220e+02) (52, -1.50000000000000000000e+03) (53, -4.40778986421246884220e+02) (54, -3.53191248885190489659e+01) (46, 1.17529559156304685530e+03) (47, 1.49999622046256058638e+03) (48, 1.50000000000000000000e+03) (49, 1.50000000000000000000e+03) (50, -1.47616025946506056243e+03) (51, 1.49999622046256058638e+03) (52, 1.50000000000000000000e+03) (53, 1.49999622046256058638e+03) (54, 6.76261473145441414090e+02) (55, 1.49999694063939728039e+03) (56, 1.49999694063939728039e+03) (57, 1.50000000000000000000e+03) (58, -3.87125317766543091125e+01) (59, -7.60995564876264385390e+00) (55, 1.11875725776122999378e+03) (56, 1.11874615883593492072e+03) (57, 1.50000000000000000000e+03) (58, -8.14556748225758409099e-01) (59, -3.83469818556670318799e+01) (55, 1.28106542001353886917e+03) (56, 1.28207461656376699466e+03) (57, 1.50000000000000000000e+03) (58, -1.40070225698665467462e+03) (59, -5.46022060579700450944e+02) (60, 2.27923414594741103656e+02) (61, -1.17373265937014730298e+03) (62, 9.44337926260149515656e+02) (63, 8.01573754765335322325e-01) (60, 1.50000000000000000000e+03) (61, 1.50000000000000000000e+03) (62, 1.49999869228792977083e+03) (63, 2.64507237499584357820e+00) (60, 1.50000000000000000000e+03) (61, 1.50000000000000000000e+03) (62, 1.49999869228792977083e+03) (63, 3.09543993525289762303e+00) (60, 1.50000000000000000000e+03) (61, 1.50000000000000000000e+03) (62, 1.49999869228792977083e+03) (63, 2.27537698410753952416e+00) (64, 1.66050011780077388934e+00) (65, -7.58530916168681845768e-01) (66, -2.23523765344493563489e+00) (67, -1.65308586588499895065e+00) (68, 2.76559353380772199316e+00) 
